digraph Tree {
node [shape=box, style="filled, rounded", color="black", fontname=helvetica] ;
edge [fontname=helvetica] ;
0 [label="sepal length (cm) <= 5.45\ngini = 0.65\nsamples = 66\nvalue = [31, 43, 26]\nclass = versicolor", fillcolor="#ddfae9"] ;
1 [label="petal width (cm) <= 0.8\ngini = 0.36\nsamples = 23\nvalue = [27, 7, 1]\nclass = setosa", fillcolor="#eca572"] ;
0 -> 1 [labeldistance=2.5, labelangle=45, headlabel="True"] ;
2 [label="gini = 0.0\nsamples = 18\nvalue = [27, 0, 0]\nclass = setosa", fillcolor="#e58139"] ;
1 -> 2 ;
3 [label="gini = 0.22\nsamples = 5\nvalue = [0, 7, 1]\nclass = versicolor", fillcolor="#55e993"] ;
1 -> 3 ;
4 [label="petal length (cm) <= 4.75\ngini = 0.54\nsamples = 43\nvalue = [4, 36, 25]\nclass = versicolor", fillcolor="#c9f8dc"] ;
0 -> 4 [labeldistance=2.5, labelangle=-45, headlabel="False"] ;
5 [label="petal length (cm) <= 3.65\ngini = 0.2\nsamples = 19\nvalue = [4, 31, 0]\nclass = versicolor", fillcolor="#53e891"] ;
4 -> 5 ;
6 [label="gini = 0.44\nsamples = 3\nvalue = [4, 2, 0]\nclass = setosa", fillcolor="#f2c09c"] ;
5 -> 6 ;
7 [label="gini = 0.0\nsamples = 16\nvalue = [0, 29, 0]\nclass = versicolor", fillcolor="#39e581"] ;
5 -> 7 ;
8 [label="sepal width (cm) <= 3.15\ngini = 0.28\nsamples = 24\nvalue = [0, 5, 25]\nclass = virginica", fillcolor="#9a61ea"] ;
4 -> 8 ;
9 [label="petal width (cm) <= 1.75\ngini = 0.17\nsamples = 18\nvalue = [0, 2, 20]\nclass = virginica", fillcolor="#8e4de8"] ;
8 -> 9 ;
10 [label="gini = 0.5\nsamples = 4\nvalue = [0, 2, 2]\nclass = versicolor", fillcolor="#ffffff"] ;
9 -> 10 ;
11 [label="gini = 0.0\nsamples = 14\nvalue = [0, 0, 18]\nclass = virginica", fillcolor="#8139e5"] ;
9 -> 11 ;
12 [label="sepal length (cm) <= 6.35\ngini = 0.47\nsamples = 6\nvalue = [0, 3, 5]\nclass = virginica", fillcolor="#cdb0f5"] ;
8 -> 12 ;
13 [label="gini = 0.48\nsamples = 3\nvalue = [0, 3, 2]\nclass = versicolor", fillcolor="#bdf6d5"] ;
12 -> 13 ;
14 [label="gini = 0.0\nsamples = 3\nvalue = [0, 0, 3]\nclass = virginica", fillcolor="#8139e5"] ;
12 -> 14 ;
}